<?xml version="1.0"?>
<opencv_storage>
<cascade>
  <stageType>BOOST</stageType>
  <featureType>HAAR</featureType>
  <height>24</height>
  <width>24</width>
  <stageParams>
    <boostType>GAB</boostType>
    <minHitRate>9.9500000476837158e-001</minHitRate>
    <maxFalseAlarm>5.0000000000000000e-001</maxFalseAlarm>
    <weightTrimRate>9.4999999999999996e-001</weightTrimRate>
    <maxDepth>1</maxDepth>
    <maxWeakCount>100</maxWeakCount></stageParams>
  <featureParams>
    <maxCatCount>0</maxCatCount>
    <featSize>1</featSize>
    <mode>BASIC</mode></featureParams>
  <stageNum>9</stageNum>
  <stages>
    <!-- stage 0 -->
    <_>
      <maxWeakCount>3</maxWeakCount>
      <stageThreshold>-1.2193845510482788e+000</stageThreshold>
      <weakClassifiers>
        <_>
          <internalNodes>
            0 -1 16 2.4391116201877594e-001</internalNodes>
          <leafValues>
            -9.5975232124328613e-001 7.3412698507308960e-001</leafValues></_>
        <_>
          <internalNodes>
            0 -1 5 1.7030727863311768e-001</internalNodes>
          <leafValues>
            -8.0572408437728882e-001 8.9850175380706787e-001</leafValues></_>
        <_>
          <internalNodes>
            0 -1 14 9.1312348842620850e-002</internalNodes>
          <leafValues>
            -8.7980294227600098e-001 5.4609185457229614e-001</leafValues></_></weakClassifiers></_>
    <!-- stage 1 -->
    <_>
      <maxWeakCount>3</maxWeakCount>
      <stageThreshold>-8.6635601520538330e-001</stageThreshold>
      <weakClassifiers>
        <_>
          <internalNodes>
            0 -1 31 -3.2026104629039764e-002</internalNodes>
          <leafValues>
            8.1647056341171265e-001 -8.2344830036163330e-001</leafValues></_>
        <_>
          <internalNodes>
            0 -1 20 -6.4292717725038528e-003</internalNodes>
          <leafValues>
            6.4203327894210815e-001 -7.0440471172332764e-001</leafValues></_>
        <_>
          <internalNodes>
            0 -1 15 1.2001512572169304e-002</internalNodes>
          <leafValues>
            -6.8494105339050293e-001 6.7088401317596436e-001</leafValues></_></weakClassifiers></_>
    <!-- stage 2 -->
    <_>
      <maxWeakCount>2</maxWeakCount>
      <stageThreshold>-3.2847461104393005e-001</stageThreshold>
      <weakClassifiers>
        <_>
          <internalNodes>
            0 -1 6 9.0643428266048431e-002</internalNodes>
          <leafValues>
            -8.1491714715957642e-001 7.9812204837799072e-001</leafValues></_>
        <_>
          <internalNodes>
            0 -1 18 1.4640139415860176e-002</internalNodes>
          <leafValues>
            -9.0765762329101563e-001 4.8644250631332397e-001</leafValues></_></weakClassifiers></_>
    <!-- stage 3 -->
    <_>
      <maxWeakCount>2</maxWeakCount>
      <stageThreshold>-3.4308493137359619e-001</stageThreshold>
      <weakClassifiers>
        <_>
          <internalNodes>
            0 -1 9 1.9944725930690765e-001</internalNodes>
          <leafValues>
            -7.8662872314453125e-001 6.7785233259201050e-001</leafValues></_>
        <_>
          <internalNodes>
            0 -1 19 -2.3590292781591415e-002</internalNodes>
          <leafValues>
            4.4354379177093506e-001 -8.9632743597030640e-001</leafValues></_></weakClassifiers></_>
    <!-- stage 4 -->
    <_>
      <maxWeakCount>5</maxWeakCount>
      <stageThreshold>-1.1210800409317017e+000</stageThreshold>
      <weakClassifiers>
        <_>
          <internalNodes>
            0 -1 32 -3.3788863569498062e-002</internalNodes>
          <leafValues>
            8.4615385532379150e-001 -7.3609316349029541e-001</leafValues></_>
        <_>
          <internalNodes>
            0 -1 8 1.9217249006032944e-002</internalNodes>
          <leafValues>
            -5.7898700237274170e-001 7.3520582914352417e-001</leafValues></_>
        <_>
          <internalNodes>
            0 -1 23 -9.1517549008131027e-003</internalNodes>
          <leafValues>
            6.7242836952209473e-001 -5.5147039890289307e-001</leafValues></_>
        <_>
          <internalNodes>
            0 -1 29 4.6299345791339874e-002</internalNodes>
          <leafValues>
            -9.3934708833694458e-001 3.9277040958404541e-001</leafValues></_>
        <_>
          <internalNodes>
            0 -1 22 -7.0983469486236572e-003</internalNodes>
          <leafValues>
            3.5270011425018311e-001 -9.0312945842742920e-001</leafValues></_></weakClassifiers></_>
    <!-- stage 5 -->
    <_>
      <maxWeakCount>5</maxWeakCount>
      <stageThreshold>-1.2142144441604614e+000</stageThreshold>
      <weakClassifiers>
        <_>
          <internalNodes>
            0 -1 2 9.8351687192916870e-002</internalNodes>
          <leafValues>
            -7.9472953081130981e-001 7.5291377305984497e-001</leafValues></_>
        <_>
          <internalNodes>
            0 -1 24 -8.0384369939565659e-003</internalNodes>
          <leafValues>
            5.4713577032089233e-001 -6.1177384853363037e-001</leafValues></_>
        <_>
          <internalNodes>
            0 -1 34 -1.1018848046660423e-002</internalNodes>
          <leafValues>
            7.6852118968963623e-001 -5.0406426191329956e-001</leafValues></_>
        <_>
          <internalNodes>
            0 -1 11 3.9978884160518646e-004</internalNodes>
          <leafValues>
            4.0138041973114014e-001 -9.4698160886764526e-001</leafValues></_>
        <_>
          <internalNodes>
            0 -1 7 3.2762967748567462e-004</internalNodes>
          <leafValues>
            2.9497277736663818e-001 -9.0495789051055908e-001</leafValues></_></weakClassifiers></_>
    <!-- stage 6 -->
    <_>
      <maxWeakCount>4</maxWeakCount>
      <stageThreshold>-8.3015036582946777e-001</stageThreshold>
      <weakClassifiers>
        <_>
          <internalNodes>
            0 -1 4 1.9146662950515747e-001</internalNodes>
          <leafValues>
            -7.6954734325408936e-001 7.3871731758117676e-001</leafValues></_>
        <_>
          <internalNodes>
            0 -1 25 1.9140988588333130e-002</internalNodes>
          <leafValues>
            -8.1117820739746094e-001 4.2559260129928589e-001</leafValues></_>
        <_>
          <internalNodes>
            0 -1 0 5.3450703853741288e-004</internalNodes>
          <leafValues>
            2.9680526256561279e-001 -9.2456680536270142e-001</leafValues></_>
        <_>
          <internalNodes>
            0 -1 17 -6.4308270812034607e-003</internalNodes>
          <leafValues>
            4.5376992225646973e-001 -7.2030735015869141e-001</leafValues></_></weakClassifiers></_>
    <!-- stage 7 -->
    <_>
      <maxWeakCount>6</maxWeakCount>
      <stageThreshold>-1.4595627784729004e+000</stageThreshold>
      <weakClassifiers>
        <_>
          <internalNodes>
            0 -1 13 1.0823500901460648e-001</internalNodes>
          <leafValues>
            -7.0649349689483643e-001 7.7368420362472534e-001</leafValues></_>
        <_>
          <internalNodes>
            0 -1 30 -2.7963690459728241e-002</internalNodes>
          <leafValues>
            6.6157925128936768e-001 -3.9397686719894409e-001</leafValues></_>
        <_>
          <internalNodes>
            0 -1 27 -1.2083814479410648e-002</internalNodes>
          <leafValues>
            5.9718501567840576e-001 -4.2410889267921448e-001</leafValues></_>
        <_>
          <internalNodes>
            0 -1 10 4.3677114881575108e-003</internalNodes>
          <leafValues>
            -4.1672798991203308e-001 5.9194070100784302e-001</leafValues></_>
        <_>
          <internalNodes>
            0 -1 26 -1.2388342991471291e-002</internalNodes>
          <leafValues>
            -9.1713511943817139e-001 3.2726383209228516e-001</leafValues></_>
        <_>
          <internalNodes>
            0 -1 1 -4.9102213233709335e-004</internalNodes>
          <leafValues>
            -8.5418802499771118e-001 2.5598874688148499e-001</leafValues></_></weakClassifiers></_>
    <!-- stage 8 -->
    <_>
      <maxWeakCount>5</maxWeakCount>
      <stageThreshold>-1.6368486881256104e+000</stageThreshold>
      <weakClassifiers>
        <_>
          <internalNodes>
            0 -1 3 1.1836481094360352e-001</internalNodes>
          <leafValues>
            -7.5397974252700806e-001 5.9041392803192139e-001</leafValues></_>
        <_>
          <internalNodes>
            0 -1 28 3.2127432059496641e-003</internalNodes>
          <leafValues>
            -6.0279291868209839e-001 4.6148774027824402e-001</leafValues></_>
        <_>
          <internalNodes>
            0 -1 12 -1.6214084625244141e-001</internalNodes>
          <leafValues>
            4.6799111366271973e-001 -6.1366361379623413e-001</leafValues></_>
        <_>
          <internalNodes>
            0 -1 33 -8.6549315601587296e-003</internalNodes>
          <leafValues>
            6.7029941082000732e-001 -4.4037267565727234e-001</leafValues></_>
        <_>
          <internalNodes>
            0 -1 21 -2.0988337695598602e-002</internalNodes>
          <leafValues>
            7.0038372278213501e-001 -3.3671179413795471e-001</leafValues></_></weakClassifiers></_></stages>
  <features>
    <_>
      <rects>
        <_>
          0 0 3 4 -1.</_>
        <_>
          1 0 1 4 3.</_></rects>
      <tilted>0</tilted></_>
    <_>
      <rects>
        <_>
          0 1 3 3 -1.</_>
        <_>
          1 1 1 3 3.</_></rects>
      <tilted>0</tilted></_>
    <_>
      <rects>
        <_>
          0 2 8 12 -1.</_>
        <_>
          4 2 4 12 2.</_></rects>
      <tilted>0</tilted></_>
    <_>
      <rects>
        <_>
          0 2 21 4 -1.</_>
        <_>
          7 2 7 4 3.</_></rects>
      <tilted>0</tilted></_>
    <_>
      <rects>
        <_>
          0 2 24 5 -1.</_>
        <_>
          8 2 8 5 3.</_></rects>
      <tilted>0</tilted></_>
    <_>
      <rects>
        <_>
          0 3 24 5 -1.</_>
        <_>
          8 3 8 5 3.</_></rects>
      <tilted>0</tilted></_>
    <_>
      <rects>
        <_>
          0 4 6 18 -1.</_>
        <_>
          3 4 3 18 2.</_></rects>
      <tilted>0</tilted></_>
    <_>
      <rects>
        <_>
          1 0 2 3 -1.</_>
        <_>
          2 0 1 3 2.</_></rects>
      <tilted>0</tilted></_>
    <_>
      <rects>
        <_>
          1 8 6 11 -1.</_>
        <_>
          3 8 2 11 3.</_></rects>
      <tilted>0</tilted></_>
    <_>
      <rects>
        <_>
          2 0 19 10 -1.</_>
        <_>
          2 5 19 5 2.</_></rects>
      <tilted>0</tilted></_>
    <_>
      <rects>
        <_>
          2 11 3 6 -1.</_>
        <_>
          3 11 1 6 3.</_></rects>
      <tilted>0</tilted></_>
    <_>
      <rects>
        <_>
          3 0 2 2 -1.</_>
        <_>
          3 1 2 1 2.</_></rects>
      <tilted>0</tilted></_>
    <_>
      <rects>
        <_>
          3 14 19 10 -1.</_>
        <_>
          3 19 19 5 2.</_></rects>
      <tilted>0</tilted></_>
    <_>
      <rects>
        <_>
          4 0 16 6 -1.</_>
        <_>
          4 3 16 3 2.</_></rects>
      <tilted>0</tilted></_>
    <_>
      <rects>
        <_>
          5 0 5 24 -1.</_>
        <_>
          5 8 5 8 3.</_></rects>
      <tilted>0</tilted></_>
    <_>
      <rects>
        <_>
          5 1 11 6 -1.</_>
        <_>
          5 3 11 2 3.</_></rects>
      <tilted>0</tilted></_>
    <_>
      <rects>
        <_>
          6 0 14 24 -1.</_>
        <_>
          6 8 14 8 3.</_></rects>
      <tilted>0</tilted></_>
    <_>
      <rects>
        <_>
          7 1 6 14 -1.</_>
        <_>
          7 1 3 7 2.</_>
        <_>
          10 8 3 7 2.</_></rects>
      <tilted>0</tilted></_>
    <_>
      <rects>
        <_>
          7 9 15 10 -1.</_>
        <_>
          12 9 5 10 3.</_></rects>
      <tilted>0</tilted></_>
    <_>
      <rects>
        <_>
          7 12 3 12 -1.</_>
        <_>
          7 18 3 6 2.</_></rects>
      <tilted>0</tilted></_>
    <_>
      <rects>
        <_>
          8 12 9 2 -1.</_>
        <_>
          11 12 3 2 3.</_></rects>
      <tilted>0</tilted></_>
    <_>
      <rects>
        <_>
          9 0 12 4 -1.</_>
        <_>
          9 0 6 2 2.</_>
        <_>
          15 2 6 2 2.</_></rects>
      <tilted>0</tilted></_>
    <_>
      <rects>
        <_>
          10 4 10 5 -1.</_>
        <_>
          15 4 5 5 2.</_></rects>
      <tilted>0</tilted></_>
    <_>
      <rects>
        <_>
          11 7 3 12 -1.</_>
        <_>
          11 11 3 4 3.</_></rects>
      <tilted>0</tilted></_>
    <_>
      <rects>
        <_>
          11 8 3 6 -1.</_>
        <_>
          11 11 3 3 2.</_></rects>
      <tilted>0</tilted></_>
    <_>
      <rects>
        <_>
          12 1 3 15 -1.</_>
        <_>
          12 6 3 5 3.</_></rects>
      <tilted>0</tilted></_>
    <_>
      <rects>
        <_>
          12 4 6 4 -1.</_>
        <_>
          15 4 3 4 2.</_></rects>
      <tilted>0</tilted></_>
    <_>
      <rects>
        <_>
          12 11 6 8 -1.</_>
        <_>
          12 11 3 4 2.</_>
        <_>
          15 15 3 4 2.</_></rects>
      <tilted>0</tilted></_>
    <_>
      <rects>
        <_>
          14 3 2 14 -1.</_>
        <_>
          14 3 1 7 2.</_>
        <_>
          15 10 1 7 2.</_></rects>
      <tilted>0</tilted></_>
    <_>
      <rects>
        <_>
          14 5 9 18 -1.</_>
        <_>
          14 11 9 6 3.</_></rects>
      <tilted>0</tilted></_>
    <_>
      <rects>
        <_>
          20 0 4 14 -1.</_>
        <_>
          20 0 2 7 2.</_>
        <_>
          22 7 2 7 2.</_></rects>
      <tilted>0</tilted></_>
    <_>
      <rects>
        <_>
          20 6 4 13 -1.</_>
        <_>
          22 6 2 13 2.</_></rects>
      <tilted>0</tilted></_>
    <_>
      <rects>
        <_>
          20 9 4 8 -1.</_>
        <_>
          22 9 2 8 2.</_></rects>
      <tilted>0</tilted></_>
    <_>
      <rects>
        <_>
          21 8 3 10 -1.</_>
        <_>
          22 8 1 10 3.</_></rects>
      <tilted>0</tilted></_>
    <_>
      <rects>
        <_>
          21 10 2 10 -1.</_>
        <_>
          22 10 1 10 2.</_></rects>
      <tilted>0</tilted></_></features></cascade>
</opencv_storage>
