<?xml version="1.0"?>
<opencv_storage>
<stage8>
  <maxWeakCount>5</maxWeakCount>
  <stageThreshold>-1.6368486881256104e+000</stageThreshold>
  <weakClassifiers>
    <_>
      <internalNodes>
        0 -1 2583 1.1836481094360352e-001</internalNodes>
      <leafValues>
        -7.5397974252700806e-001 5.9041392803192139e-001</leafValues></_>
    <_>
      <internalNodes>
        0 -1 135072 3.2127432059496641e-003</internalNodes>
      <leafValues>
        -6.0279291868209839e-001 4.6148774027824402e-001</leafValues></_>
    <_>
      <internalNodes>
        0 -1 47822 -1.6214084625244141e-001</internalNodes>
      <leafValues>
        4.6799111366271973e-001 -6.1366361379623413e-001</leafValues></_>
    <_>
      <internalNodes>
        0 -1 160576 -8.6549315601587296e-003</internalNodes>
      <leafValues>
        6.7029941082000732e-001 -4.4037267565727234e-001</leafValues></_>
    <_>
      <internalNodes>
        0 -1 99059 -2.0988337695598602e-002</internalNodes>
      <leafValues>
        7.0038372278213501e-001 -3.3671179413795471e-001</leafValues></_></weakClassifiers></stage8>
</opencv_storage>
