<?xml version="1.0"?>
<opencv_storage>
<cascade>
  <stageType>BOOST</stageType>
  <featureType>LBP</featureType>
  <height>24</height>
  <width>24</width>
  <stageParams>
    <boostType>GAB</boostType>
    <minHitRate>9.9500000476837158e-001</minHitRate>
    <maxFalseAlarm>5.0000000000000000e-001</maxFalseAlarm>
    <weightTrimRate>9.4999999999999996e-001</weightTrimRate>
    <maxDepth>1</maxDepth>
    <maxWeakCount>100</maxWeakCount></stageParams>
  <featureParams>
    <maxCatCount>256</maxCatCount>
    <featSize>1</featSize></featureParams>
  <stageNum>18</stageNum>
  <stages>
    <!-- stage 0 -->
    <_>
      <maxWeakCount>2</maxWeakCount>
      <stageThreshold>-1.4529034495353699e-001</stageThreshold>
      <weakClassifiers>
        <_>
          <internalNodes>
            0 -1 16 -103415809 -544910889 1426146142 -40253749
            -1802966562 -41842295 -301430644 -70339864</internalNodes>
          <leafValues>
            -9.6696698665618896e-001 8.1404960155487061e-001</leafValues></_>
        <_>
          <internalNodes>
            0 -1 42 -13107329 -50074549 -917383113 1951718753 -707215053
            -1071005653 -1454134481 -97520737</internalNodes>
          <leafValues>
            -9.1764533519744873e-001 8.2167661190032959e-001</leafValues></_></weakClassifiers></_>
    <!-- stage 1 -->
    <_>
      <maxWeakCount>2</maxWeakCount>
      <stageThreshold>-1.4131809771060944e-001</stageThreshold>
      <weakClassifiers>
        <_>
          <internalNodes>
            0 -1 9 -288425985 -703704881 -2138718173 -37264909
            -641679218 -620158973 -1006570549 -33565809</internalNodes>
          <leafValues>
            -9.6656537055969238e-001 7.8455287218093872e-001</leafValues></_>
        <_>
          <internalNodes>
            0 -1 37 -706215947 -44703395 -922642541 -49295329 -460396300
            -1065303868 -83768644 -68433153</internalNodes>
          <leafValues>
            -8.9153420925140381e-001 8.2524722814559937e-001</leafValues></_></weakClassifiers></_>
    <!-- stage 2 -->
    <_>
      <maxWeakCount>2</maxWeakCount>
      <stageThreshold>-1.9314584136009216e-001</stageThreshold>
      <weakClassifiers>
        <_>
          <internalNodes>
            0 -1 24 -171049729 -782530765 -515551077 -75120497
            -1044002325 1392642691 -511065173 -204626741</internalNodes>
          <leafValues>
            -8.9265537261962891e-001 8.6425340175628662e-001</leafValues></_>
        <_>
          <internalNodes>
            0 -1 26 -4925165 -707397223 -1857019425 961495069
            -1283356165 -41418520 -397901601 2081147119</internalNodes>
          <leafValues>
            -9.4271224737167358e-001 6.9950950145721436e-001</leafValues></_></weakClassifiers></_>
    <!-- stage 3 -->
    <_>
      <maxWeakCount>2</maxWeakCount>
      <stageThreshold>-2.7094590663909912e-001</stageThreshold>
      <weakClassifiers>
        <_>
          <internalNodes>
            0 -1 36 -6332641 -2288653 -128216621 -2897789 -16067845
            -133307960 -628891505 -278930065</internalNodes>
          <leafValues>
            -9.3645989894866943e-001 7.5460124015808105e-001</leafValues></_>
        <_>
          <internalNodes>
            0 -1 21 -104990721 -1290676931 -470095041 -10120066
            -173294098 -628739702 -343147681 -572726338</internalNodes>
          <leafValues>
            -9.5409733057022095e-001 6.6551399230957031e-001</leafValues></_></weakClassifiers></_>
    <!-- stage 4 -->
    <_>
      <maxWeakCount>3</maxWeakCount>
      <stageThreshold>-9.6694922447204590e-001</stageThreshold>
      <weakClassifiers>
        <_>
          <internalNodes>
            0 -1 1 -268435457 -1 -1 -268435457 -8193 -129 -134742017 -1</internalNodes>
          <leafValues>
            -8.0851066112518311e-001 8.9949750900268555e-001</leafValues></_>
        <_>
          <internalNodes>
            0 -1 41 -171 -976751291 -771497973 -3939045 -937178405
            -595343478 -156269621 -1066402325</internalNodes>
          <leafValues>
            -8.7925511598587036e-001 7.5390493869781494e-001</leafValues></_>
        <_>
          <internalNodes>
            0 -1 3 2113928959 -1948915725 -291377681 -302944109
            -1163666721 -1237169922 -728403755 -134479881</internalNodes>
          <leafValues>
            -8.4706383943557739e-001 7.2081649303436279e-001</leafValues></_></weakClassifiers></_>
    <!-- stage 5 -->
    <_>
      <maxWeakCount>3</maxWeakCount>
      <stageThreshold>-8.8761675357818604e-001</stageThreshold>
      <weakClassifiers>
        <_>
          <internalNodes>
            0 -1 2 -182724625 -80358991 -1861134473 -40161097
            -1869835073 1345008894 -1192630017 -67251969</internalNodes>
          <leafValues>
            -8.7572252750396729e-001 7.7729254961013794e-001</leafValues></_>
        <_>
          <internalNodes>
            0 -1 48 -673206273 -1801219957 -2128440461 -419776129
            -771251772 -456719657 -342917196 -1049641</internalNodes>
          <leafValues>
            -8.1497114896774292e-001 7.4603790044784546e-001</leafValues></_>
        <_>
          <internalNodes>
            0 -1 23 -660998417 -974417839 71927131 -476081245 -207934021
            -397467857 -290872431 -604001313</internalNodes>
          <leafValues>
            -7.5793212652206421e-001 8.5490626096725464e-001</leafValues></_></weakClassifiers></_>
    <!-- stage 6 -->
    <_>
      <maxWeakCount>2</maxWeakCount>
      <stageThreshold>-1.8336528539657593e-001</stageThreshold>
      <weakClassifiers>
        <_>
          <internalNodes>
            0 -1 10 -1888489505 -1955079364 -249177701 -7889269
            -674782805 -368222208 -67190575 -7195</internalNodes>
          <leafValues>
            -8.7761193513870239e-001 7.0416665077209473e-001</leafValues></_>
        <_>
          <internalNodes>
            0 -1 40 -6291587 -1778662385 -929464299 2138032143
            1271852271 -137785079 -351539969 -97518609</internalNodes>
          <leafValues>
            -8.7500905990600586e-001 6.9424664974212646e-001</leafValues></_></weakClassifiers></_>
    <!-- stage 7 -->
    <_>
      <maxWeakCount>3</maxWeakCount>
      <stageThreshold>-9.5411080121994019e-001</stageThreshold>
      <weakClassifiers>
        <_>
          <internalNodes>
            0 -1 31 -12321 -131107 -1 -1 -50 -536907810 -1 -1</internalNodes>
          <leafValues>
            -7.7242302894592285e-001 8.1141442060470581e-001</leafValues></_>
        <_>
          <internalNodes>
            0 -1 5 -716187649 -594771073 -1064188911 1814620396
            -1311799105 2109005939 -75036529 -25170949</internalNodes>
          <leafValues>
            -8.0983877182006836e-001 7.4531966447830200e-001</leafValues></_>
        <_>
          <internalNodes>
            0 -1 17 -171715634 1986740790 -1815885976 -41450240
            -1743869781 -376864637 -672696042 -13549</internalNodes>
          <leafValues>
            -8.8818979263305664e-001 6.2815099954605103e-001</leafValues></_></weakClassifiers></_>
    <!-- stage 8 -->
    <_>
      <maxWeakCount>3</maxWeakCount>
      <stageThreshold>-1.0312463045120239e+000</stageThreshold>
      <weakClassifiers>
        <_>
          <internalNodes>
            0 -1 25 -1181254273 1029243929 857856255 953010333
            -1744260673 -643784499 -1735799907 -1194333814</internalNodes>
          <leafValues>
            -8.3529412746429443e-001 6.7659574747085571e-001</leafValues></_>
        <_>
          <internalNodes>
            0 -1 34 -243796521 -805256840 -2138057891 -1534897772
            -1224031521 -645168512 -1182668369 -1464862721</internalNodes>
          <leafValues>
            -8.3194541931152344e-001 7.0530241727828979e-001</leafValues></_>
        <_>
          <internalNodes>
            0 -1 19 -1993100398 297095445 -2063526401 -1519041884
            -1388281190 998277517 -1882991685 -67380549</internalNodes>
          <leafValues>
            -8.6969023942947388e-001 6.3599324226379395e-001</leafValues></_></weakClassifiers></_>
    <!-- stage 9 -->
    <_>
      <maxWeakCount>3</maxWeakCount>
      <stageThreshold>-1.1488919258117676e+000</stageThreshold>
      <weakClassifiers>
        <_>
          <internalNodes>
            0 -1 47 -241248036 -784105319 1610678411 -133148630
            -930377718 -368443382 -1559461750 -3159415</internalNodes>
          <leafValues>
            -8.1575036048889160e-001 6.2683439254760742e-001</leafValues></_>
        <_>
          <internalNodes>
            0 -1 38 -116174370 -802955246 -2126016167 -1112866765
            -352272150 -134119407 -2134534933 -1429234693</internalNodes>
          <leafValues>
            -8.6736536026000977e-001 6.1666756868362427e-001</leafValues></_>
        <_>
          <internalNodes>
            0 -1 27 -1580891446 -141097953 -2021586225 -112750065
            2064595627 -1165262166 -817640721 -241093905</internalNodes>
          <leafValues>
            -8.7838381528854370e-001 5.3422379493713379e-001</leafValues></_></weakClassifiers></_>
    <!-- stage 10 -->
    <_>
      <maxWeakCount>4</maxWeakCount>
      <stageThreshold>-6.2057906389236450e-001</stageThreshold>
      <weakClassifiers>
        <_>
          <internalNodes>
            0 -1 7 -294125633 -237945089 -1879042209 -82591343
            -501874753 -376930162 1612896730 -292064537</internalNodes>
          <leafValues>
            -8.1341105699539185e-001 6.6379308700561523e-001</leafValues></_>
        <_>
          <internalNodes>
            0 -1 33 -251929365 -741307632 1228342387 -1173820985
            -38681334 -216727022 -1129860370 774598331</internalNodes>
          <leafValues>
            -9.2558276653289795e-001 5.1590734720230103e-001</leafValues></_>
        <_>
          <internalNodes>
            0 -1 4 -699729441 -412482537 1359173403 -304708525
            1644900535 -1565326843 -1060662361 -69481105</internalNodes>
          <leafValues>
            -8.5557758808135986e-001 5.8717143535614014e-001</leafValues></_>
        <_>
          <internalNodes>
            0 -1 18 -215941428 -209796986 -1072508476 -243575129
            -746469172 -660371283 -3034277 -13369841</internalNodes>
          <leafValues>
            -9.1024678945541382e-001 5.4886388778686523e-001</leafValues></_></weakClassifiers></_>
    <!-- stage 11 -->
    <_>
      <maxWeakCount>2</maxWeakCount>
      <stageThreshold>-2.7031853795051575e-001</stageThreshold>
      <weakClassifiers>
        <_>
          <internalNodes>
            0 -1 15 -5077537 -552372075 457248093 2000685565 -1195201907
            -288325477 -68580390 -67164837</internalNodes>
          <leafValues>
            -7.8531074523925781e-001 6.9230771064758301e-001</leafValues></_>
        <_>
          <internalNodes>
            0 -1 39 -691879904 -249395112 -989668935 -1130699584
            -993799757 -257613533 -2104510018 -1917858113</internalNodes>
          <leafValues>
            -9.2826616764068604e-001 5.1499217748641968e-001</leafValues></_></weakClassifiers></_>
    <!-- stage 12 -->
    <_>
      <maxWeakCount>3</maxWeakCount>
      <stageThreshold>-9.9221038818359375e-001</stageThreshold>
      <weakClassifiers>
        <_>
          <internalNodes>
            0 -1 46 -167816769 -741121205 -532248225 -1011912377
            -544238881 -1979108989 1739319499 -5055585</internalNodes>
          <leafValues>
            -8.5624998807907104e-001 5.8431375026702881e-001</leafValues></_>
        <_>
          <internalNodes>
            0 -1 22 -1848405027 -1240348425 487653785 -613055531
            2073794523 -124065764 -795111233 -559939842</internalNodes>
          <leafValues>
            -7.3421031236648560e-001 6.9711887836456299e-001</leafValues></_>
        <_>
          <internalNodes>
            0 -1 45 -217394185 251859871 1091806321 -418786153
            -341464591 -893548901 -896872304 -553927941</internalNodes>
          <leafValues>
            -8.2825350761413574e-001 5.9824991226196289e-001</leafValues></_></weakClassifiers></_>
    <!-- stage 13 -->
    <_>
      <maxWeakCount>2</maxWeakCount>
      <stageThreshold>-2.6609820127487183e-001</stageThreshold>
      <weakClassifiers>
        <_>
          <internalNodes>
            0 -1 13 -1790001673 -586652532 -602323633 -1861001118
            -1190987557 -2073509577 -116712709 -50338897</internalNodes>
          <leafValues>
            -8.2769232988357544e-001 5.7599997520446777e-001</leafValues></_>
        <_>
          <internalNodes>
            0 -1 43 -740302913 -73549233 1657263566 -670254961
            -1981620353 2109161593 -1129206305 -11804961</internalNodes>
          <leafValues>
            -8.4209817647933960e-001 6.2424719333648682e-001</leafValues></_></weakClassifiers></_>
    <!-- stage 14 -->
    <_>
      <maxWeakCount>4</maxWeakCount>
      <stageThreshold>-6.4226663112640381e-001</stageThreshold>
      <weakClassifiers>
        <_>
          <internalNodes>
            0 -1 28 902915039 1362302949 272111035 -608501501
            -1610351970 11972280 -1130812738 -67389029</internalNodes>
          <leafValues>
            -7.8705036640167236e-001 6.5274727344512939e-001</leafValues></_>
        <_>
          <internalNodes>
            0 -1 12 823892830 1865879956 2032208859 -15663009
            -1985996814 -79067894 -1878652180 -286340882</internalNodes>
          <leafValues>
            -8.5348880290985107e-001 5.5461585521697998e-001</leafValues></_>
        <_>
          <internalNodes>
            0 -1 32 1708648588 -14997403 -1056695217 -22155031
            -780021461 -419297408 -132268357 -1361445073</internalNodes>
          <leafValues>
            -8.5243391990661621e-001 5.6356388330459595e-001</leafValues></_>
        <_>
          <internalNodes>
            0 -1 20 -654282064 1905652053 -1270218401 -942996699
            1216989807 -922892181 -255676689 -18657215</internalNodes>
          <leafValues>
            -9.4638520479202271e-001 4.4260174036026001e-001</leafValues></_></weakClassifiers></_>
    <!-- stage 15 -->
    <_>
      <maxWeakCount>3</maxWeakCount>
      <stageThreshold>-9.7216361761093140e-001</stageThreshold>
      <weakClassifiers>
        <_>
          <internalNodes>
            0 -1 0 -268967937 -116341839 1881770331 -540819191
            -1962297189 -802570067 -1547518985 -81267837</internalNodes>
          <leafValues>
            -7.7777779102325439e-001 6.9020503759384155e-001</leafValues></_>
        <_>
          <internalNodes>
            0 -1 6 1483993599 -902336913 -1925185057 -469728713
            -2134154409 967508563 -110379381 -846991953</internalNodes>
          <leafValues>
            -8.1931531429290771e-001 6.2721937894821167e-001</leafValues></_>
        <_>
          <internalNodes>
            0 -1 35 -346835461 -1291255385 -1286467082 -1615097401
            50508490 -1056939995 -1566010630 -39200011</internalNodes>
          <leafValues>
            -7.9769206047058105e-001 6.2492948770523071e-001</leafValues></_></weakClassifiers></_>
    <!-- stage 16 -->
    <_>
      <maxWeakCount>2</maxWeakCount>
      <stageThreshold>-2.3140335083007813e-001</stageThreshold>
      <weakClassifiers>
        <_>
          <internalNodes>
            0 -1 8 -150020873 -685826021 -1054801609 -679278592
            -118235077 -119402496 -964030069 -543432449</internalNodes>
          <leafValues>
            -7.6190477609634399e-001 6.7431193590164185e-001</leafValues></_>
        <_>
          <internalNodes>
            0 -1 44 -119613697 320055643 738271015 -205032617 -742160142
            -1971124585 -762710288 -324011112</internalNodes>
          <leafValues>
            -8.7916278839111328e-001 5.3050142526626587e-001</leafValues></_></weakClassifiers></_>
    <!-- stage 17 -->
    <_>
      <maxWeakCount>4</maxWeakCount>
      <stageThreshold>-4.1325935721397400e-001</stageThreshold>
      <weakClassifiers>
        <_>
          <internalNodes>
            0 -1 11 -543662083 1916207378 1327075597 -1745141729
            -2128936566 -802748156 -1772935029 -536901470</internalNodes>
          <leafValues>
            -8.0804955959320068e-001 5.3968256711959839e-001</leafValues></_>
        <_>
          <internalNodes>
            0 -1 29 306324362 -637599343 210112990 -146076354 -391923270
            -1111851000 1837640347 -173823686</internalNodes>
          <leafValues>
            -8.5483580827713013e-001 5.1742333173751831e-001</leafValues></_>
        <_>
          <internalNodes>
            0 -1 14 -783851329 -47120214 -1543356153 -54327641 285291907
            -1859936227 -1945141110 -131465749</internalNodes>
          <leafValues>
            -7.0081412792205811e-001 6.9454288482666016e-001</leafValues></_>
        <_>
          <internalNodes>
            0 -1 30 -977271612 -754130791 1124182489 -14876452 555779469
            -796883967 -590046553 -68582417</internalNodes>
          <leafValues>
            -7.6955109834671021e-001 6.5458536148071289e-001</leafValues></_></weakClassifiers></_></stages>
  <features>
    <_>
      <rect>
        0 0 3 3</rect></_>
    <_>
      <rect>
        0 0 4 3</rect></_>
    <_>
      <rect>
        0 1 8 3</rect></_>
    <_>
      <rect>
        0 4 2 2</rect></_>
    <_>
      <rect>
        0 6 3 4</rect></_>
    <_>
      <rect>
        0 11 2 4</rect></_>
    <_>
      <rect>
        0 15 2 3</rect></_>
    <_>
      <rect>
        1 0 4 2</rect></_>
    <_>
      <rect>
        1 0 4 5</rect></_>
    <_>
      <rect>
        1 1 3 6</rect></_>
    <_>
      <rect>
        1 4 1 2</rect></_>
    <_>
      <rect>
        3 0 6 8</rect></_>
    <_>
      <rect>
        3 15 6 2</rect></_>
    <_>
      <rect>
        4 8 2 2</rect></_>
    <_>
      <rect>
        4 9 2 3</rect></_>
    <_>
      <rect>
        5 3 4 2</rect></_>
    <_>
      <rect>
        5 9 6 5</rect></_>
    <_>
      <rect>
        6 8 2 3</rect></_>
    <_>
      <rect>
        6 10 2 2</rect></_>
    <_>
      <rect>
        7 1 2 1</rect></_>
    <_>
      <rect>
        7 5 2 3</rect></_>
    <_>
      <rect>
        7 6 3 6</rect></_>
    <_>
      <rect>
        7 11 4 4</rect></_>
    <_>
      <rect>
        8 0 3 7</rect></_>
    <_>
      <rect>
        8 0 3 8</rect></_>
    <_>
      <rect>
        8 0 5 1</rect></_>
    <_>
      <rect>
        8 0 5 3</rect></_>
    <_>
      <rect>
        9 6 2 2</rect></_>
    <_>
      <rect>
        9 6 5 4</rect></_>
    <_>
      <rect>
        9 7 2 1</rect></_>
    <_>
      <rect>
        11 1 1 1</rect></_>
    <_>
      <rect>
        11 6 4 3</rect></_>
    <_>
      <rect>
        11 7 2 2</rect></_>
    <_>
      <rect>
        11 9 2 3</rect></_>
    <_>
      <rect>
        11 11 2 3</rect></_>
    <_>
      <rect>
        11 12 4 4</rect></_>
    <_>
      <rect>
        12 0 3 4</rect></_>
    <_>
      <rect>
        12 5 4 6</rect></_>
    <_>
      <rect>
        12 10 2 2</rect></_>
    <_>
      <rect>
        14 10 1 2</rect></_>
    <_>
      <rect>
        18 1 2 5</rect></_>
    <_>
      <rect>
        18 1 2 6</rect></_>
    <_>
      <rect>
        18 3 2 3</rect></_>
    <_>
      <rect>
        18 5 2 2</rect></_>
    <_>
      <rect>
        18 15 2 3</rect></_>
    <_>
      <rect>
        18 16 2 2</rect></_>
    <_>
      <rect>
        19 2 1 3</rect></_>
    <_>
      <rect>
        19 6 1 1</rect></_>
    <_>
      <rect>
        21 10 1 3</rect></_></features></cascade>
</opencv_storage>
