<?xml version="1.0"?>
<opencv_storage>
<stage10>
  <maxWeakCount>4</maxWeakCount>
  <stageThreshold>-6.2057906389236450e-001</stageThreshold>
  <weakClassifiers>
    <_>
      <internalNodes>
        0 -1 761 -294125633 -237945089 -1879042209 -82591343 -501874753
        -376930162 1612896730 -292064537</internalNodes>
      <leafValues>
        -8.1341105699539185e-001 6.6379308700561523e-001</leafValues></_>
    <_>
      <internalNodes>
        0 -1 6307 -251929365 -741307632 1228342387 -1173820985 -38681334
        -216727022 -1129860370 774598331</internalNodes>
      <leafValues>
        -9.2558276653289795e-001 5.1590734720230103e-001</leafValues></_>
    <_>
      <internalNodes>
        0 -1 343 -699729441 -412482537 1359173403 -304708525 1644900535
        -1565326843 -1060662361 -69481105</internalNodes>
      <leafValues>
        -8.5557758808135986e-001 5.8717143535614014e-001</leafValues></_>
    <_>
      <internalNodes>
        0 -1 4149 -215941428 -209796986 -1072508476 -243575129
        -746469172 -660371283 -3034277 -13369841</internalNodes>
      <leafValues>
        -9.1024678945541382e-001 5.4886388778686523e-001</leafValues></_></weakClassifiers></stage10>
</opencv_storage>
